<?xml version="1.0"?>
<opencv_storage>
<cascade>
  <stageType>BOOST</stageType>
  <featureType>HAAR</featureType>
  <height>24</height>
  <width>24</width>
  <stageParams>
    <boostType>GAB</boostType>
    <minHitRate>9.9500000476837158e-01</minHitRate>
    <maxFalseAlarm>5.0000000000000000e-01</maxFalseAlarm>
    <weightTrimRate>9.4999999999999996e-01</weightTrimRate>
    <maxDepth>1</maxDepth>
    <maxWeakCount>100</maxWeakCount></stageParams>
  <featureParams>
    <maxCatCount>0</maxCatCount>
    <featSize>1</featSize>
    <mode>BASIC</mode></featureParams>
  <stageNum>20</stageNum>
  <stages>
    <!-- stage 0 -->
    <_>
      <maxWeakCount>2</maxWeakCount>
      <stageThreshold>3.9920159615576267e-03</stageThreshold>
      <weakClassifiers>
        <_>
          <internalNodes>
            0 -1 108 -1.1029752204194665e-03</internalNodes>
          <leafValues>
            1. -9.9600797891616821e-01</leafValues></_>
        <_>
          <internalNodes>
            0 -1 20 -1.5549689531326294e-02</internalNodes>
          <leafValues>
            1. -9.9404168128967285e-01</leafValues></_></weakClassifiers></_>
    <!-- stage 1 -->
    <_>
      <maxWeakCount>3</maxWeakCount>
      <stageThreshold>-1.4682266712188721e+00</stageThreshold>
      <weakClassifiers>
        <_>
          <internalNodes>
            0 -1 17 -5.3136330097913742e-02</internalNodes>
          <leafValues>
            -7.9999998211860657e-02 -9.2865359783172607e-01</leafValues></_>
        <_>
          <internalNodes>
            0 -1 89 -9.3733742833137512e-02</internalNodes>
          <leafValues>
            4.6086949110031128e-01 -6.9217211008071899e-01</leafValues></_>
        <_>
          <internalNodes>
            0 -1 133 6.6495910286903381e-02</internalNodes>
          <leafValues>
            -6.9605457782745361e-01 5.4987800121307373e-01</leafValues></_></weakClassifiers></_>
    <!-- stage 2 -->
    <_>
      <maxWeakCount>5</maxWeakCount>
      <stageThreshold>-1.5317653417587280e+00</stageThreshold>
      <weakClassifiers>
        <_>
          <internalNodes>
            0 -1 158 5.6012477725744247e-02</internalNodes>
          <leafValues>
            -8.2812500000000000e-01 1.1724138259887695e-01</leafValues></_>
        <_>
          <internalNodes>
            0 -1 31 -4.6143271028995514e-03</internalNodes>
          <leafValues>
            1.6769726574420929e-01 -8.4366738796234131e-01</leafValues></_>
        <_>
          <internalNodes>
            0 -1 50 -6.1226892285048962e-03</internalNodes>
          <leafValues>
            4.5727527141571045e-01 -5.1518654823303223e-01</leafValues></_>
        <_>
          <internalNodes>
            0 -1 16 -1.0460063815116882e-01</internalNodes>
          <leafValues>
            3.8801553845405579e-01 -7.6539075374603271e-01</leafValues></_>
        <_>
          <internalNodes>
            0 -1 70 -1.8715775012969971e-01</internalNodes>
          <leafValues>
            4.4814249873161316e-01 -5.2073454856872559e-01</leafValues></_></weakClassifiers></_>
    <!-- stage 3 -->
    <_>
      <maxWeakCount>10</maxWeakCount>
      <stageThreshold>-1.9995505809783936e+00</stageThreshold>
      <weakClassifiers>
        <_>
          <internalNodes>
            0 -1 160 4.5981936156749725e-02</internalNodes>
          <leafValues>
            -9.0123456716537476e-01 -2.8133705258369446e-01</leafValues></_>
        <_>
          <internalNodes>
            0 -1 38 -6.9059841334819794e-03</internalNodes>
          <leafValues>
            3.0746538192033768e-02 -8.0175435543060303e-01</leafValues></_>
        <_>
          <internalNodes>
            0 -1 57 -1.4543928205966949e-01</internalNodes>
          <leafValues>
            2.9648455977439880e-01 -5.8564478158950806e-01</leafValues></_>
        <_>
          <internalNodes>
            0 -1 45 -4.6822249889373779e-02</internalNodes>
          <leafValues>
            3.5272344946861267e-01 -7.6741987466812134e-01</leafValues></_>
        <_>
          <internalNodes>
            0 -1 65 -7.4709311593323946e-04</internalNodes>
          <leafValues>
            2.7646559476852417e-01 -5.6438308954238892e-01</leafValues></_>
        <_>
          <internalNodes>
            0 -1 98 -2.8866905719041824e-02</internalNodes>
          <leafValues>
            5.0428599119186401e-01 -3.3043003082275391e-01</leafValues></_>
        <_>
          <internalNodes>
            0 -1 141 8.3944812417030334e-02</internalNodes>
          <leafValues>
            -4.9649649858474731e-01 3.6789366602897644e-01</leafValues></_>
        <_>
          <internalNodes>
            0 -1 21 -4.0123745799064636e-02</internalNodes>
          <leafValues>
            7.2891235351562500e-01 -2.8050383925437927e-01</leafValues></_>
        <_>
          <internalNodes>
            0 -1 180 3.7633879110217094e-03</internalNodes>
          <leafValues>
            -2.2532740235328674e-01 7.4506783485412598e-01</leafValues></_>
        <_>
          <internalNodes>
            0 -1 73 -3.2734411070123315e-04</internalNodes>
          <leafValues>
            2.7087807655334473e-01 -5.7561504840850830e-01</leafValues></_></weakClassifiers></_>
    <!-- stage 4 -->
    <_>
      <maxWeakCount>10</maxWeakCount>
      <stageThreshold>-2.1016755104064941e+00</stageThreshold>
      <weakClassifiers>
        <_>
          <internalNodes>
            0 -1 138 -4.0447674691677094e-03</internalNodes>
          <leafValues>
            1.6455696523189545e-01 -7.7431190013885498e-01</leafValues></_>
        <_>
          <internalNodes>
            0 -1 152 8.5846289992332458e-02</internalNodes>
          <leafValues>
            -6.2963414192199707e-01 2.1606509387493134e-01</leafValues></_>
        <_>
          <internalNodes>
            0 -1 10 -2.1606139838695526e-02</internalNodes>
          <leafValues>
            2.8176888823509216e-01 -6.9109350442886353e-01</leafValues></_>
        <_>
          <internalNodes>
            0 -1 58 -4.6864552423357964e-03</internalNodes>
          <leafValues>
            3.8343223929405212e-01 -4.6754363179206848e-01</leafValues></_>
        <_>
          <internalNodes>
            0 -1 146 8.3757359534502029e-03</internalNodes>
          <leafValues>
            -3.2598656415939331e-01 4.8903465270996094e-01</leafValues></_>
        <_>
          <internalNodes>
            0 -1 104 -2.4424211587756872e-03</internalNodes>
          <leafValues>
            -8.2714825868606567e-01 2.3714853823184967e-01</leafValues></_>
        <_>
          <internalNodes>
            0 -1 178 2.0867525599896908e-03</internalNodes>
          <leafValues>
            -4.8128059506416321e-01 3.2911759614944458e-01</leafValues></_>
        <_>
          <internalNodes>
            0 -1 1 -1.5102610632311553e-04</internalNodes>
          <leafValues>
            -4.7772887349128723e-01 3.1108883023262024e-01</leafValues></_>
        <_>
          <internalNodes>
            0 -1 14 -1.7187383770942688e-01</internalNodes>
          <leafValues>
            3.1596586108207703e-01 -4.9392849206924438e-01</leafValues></_>
        <_>
          <internalNodes>
            0 -1 109 -1.1042414605617523e-01</internalNodes>
          <leafValues>
            3.6289021372795105e-01 -5.3378742933273315e-01</leafValues></_></weakClassifiers></_>
    <!-- stage 5 -->
    <_>
      <maxWeakCount>9</maxWeakCount>
      <stageThreshold>-1.6821323633193970e+00</stageThreshold>
      <weakClassifiers>
        <_>
          <internalNodes>
            0 -1 175 9.9317822605371475e-03</internalNodes>
          <leafValues>
            -7.9580152034759521e-01 2.4793388321995735e-02</leafValues></_>
        <_>
          <internalNodes>
            0 -1 154 7.5864844024181366e-02</internalNodes>
          <leafValues>
            -6.1363184452056885e-01 2.5389263033866882e-01</leafValues></_>
        <_>
          <internalNodes>
            0 -1 99 -2.8753349557518959e-02</internalNodes>
          <leafValues>
            3.8819107413291931e-01 -4.9719414114952087e-01</leafValues></_>
        <_>
          <internalNodes>
            0 -1 29 -4.2745522223412991e-03</internalNodes>
          <leafValues>
            3.1713432073593140e-01 -5.8347070217132568e-01</leafValues></_>
        <_>
          <internalNodes>
            0 -1 80 -4.6950362622737885e-02</internalNodes>
          <leafValues>
            2.6562175154685974e-01 -5.4955261945724487e-01</leafValues></_>
        <_>
          <internalNodes>
            0 -1 44 -5.0401121377944946e-02</internalNodes>
          <leafValues>
            3.3194318413734436e-01 -4.1047596931457520e-01</leafValues></_>
        <_>
          <internalNodes>
            0 -1 42 1.1036258656531572e-03</internalNodes>
          <leafValues>
            2.5337895750999451e-01 -5.5489450693130493e-01</leafValues></_>
        <_>
          <internalNodes>
            0 -1 149 -5.1022563129663467e-03</internalNodes>
          <leafValues>
            -7.5685656070709229e-01 1.8177753686904907e-01</leafValues></_>
        <_>
          <internalNodes>
            0 -1 52 -5.6819729506969452e-03</internalNodes>
          <leafValues>
            4.8929190635681152e-01 -2.9496639966964722e-01</leafValues></_></weakClassifiers></_>
    <!-- stage 6 -->
    <_>
      <maxWeakCount>8</maxWeakCount>
      <stageThreshold>-1.7979214191436768e+00</stageThreshold>
      <weakClassifiers>
        <_>
          <internalNodes>
            0 -1 88 -2.3002199828624725e-02</internalNodes>
          <leafValues>
            -1.2418300658464432e-01 -7.9921257495880127e-01</leafValues></_>
        <_>
          <internalNodes>
            0 -1 162 5.1644898951053619e-02</internalNodes>
          <leafValues>
            -5.8683204650878906e-01 2.3249657452106476e-01</leafValues></_>
        <_>
          <internalNodes>
            0 -1 11 -4.6626806259155273e-02</internalNodes>
          <leafValues>
            3.7483999133110046e-01 -4.3698266148567200e-01</leafValues></_>
        <_>
          <internalNodes>
            0 -1 101 -3.6163572221994400e-03</internalNodes>
          <leafValues>
            3.8117408752441406e-01 -4.6373283863067627e-01</leafValues></_>
        <_>
          <internalNodes>
            0 -1 112 -1.7171902582049370e-03</internalNodes>
          <leafValues>
            -4.7681936621665955e-01 3.1832560896873474e-01</leafValues></_>
        <_>
          <internalNodes>
            0 -1 82 -6.4205542206764221e-02</internalNodes>
          <leafValues>
            3.1210502982139587e-01 -5.3039294481277466e-01</leafValues></_>
        <_>
          <internalNodes>
            0 -1 103 -6.4122653566300869e-03</internalNodes>
          <leafValues>
            3.7273585796356201e-01 -3.5715231299400330e-01</leafValues></_>
        <_>
          <internalNodes>
            0 -1 28 -4.7089899890124798e-03</internalNodes>
          <leafValues>
            -6.5336400270462036e-01 2.1315146982669830e-01</leafValues></_></weakClassifiers></_>
    <!-- stage 7 -->
    <_>
      <maxWeakCount>9</maxWeakCount>
      <stageThreshold>-1.7474037408828735e+00</stageThreshold>
      <weakClassifiers>
        <_>
          <internalNodes>
            0 -1 120 -4.8750378191471100e-03</internalNodes>
          <leafValues>
            9.4339624047279358e-02 -7.9115712642669678e-01</leafValues></_>
        <_>
          <internalNodes>
            0 -1 72 -1.8686829134821892e-02</internalNodes>
          <leafValues>
            8.2423411309719086e-02 -6.4405965805053711e-01</leafValues></_>
        <_>
          <internalNodes>
            0 -1 143 8.9585959911346436e-02</internalNodes>
          <leafValues>
            -4.3343552947044373e-01 3.8780528306961060e-01</leafValues></_>
        <_>
          <internalNodes>
            0 -1 23 -3.3924441784620285e-02</internalNodes>
          <leafValues>
            2.7399024367332458e-01 -5.3022783994674683e-01</leafValues></_>
        <_>
          <internalNodes>
            0 -1 13 -5.5270167067646980e-03</internalNodes>
          <leafValues>
            2.4473510682582855e-01 -4.7844716906547546e-01</leafValues></_>
        <_>
          <internalNodes>
            0 -1 87 3.6659485194832087e-03</internalNodes>
          <leafValues>
            -2.8400281071662903e-01 4.7889623045921326e-01</leafValues></_>
        <_>
          <internalNodes>
            0 -1 176 5.3414059802889824e-03</internalNodes>
          <leafValues>
            -3.0632087588310242e-01 4.0059965848922729e-01</leafValues></_>
        <_>
          <internalNodes>
            0 -1 93 -6.4181955531239510e-04</internalNodes>
          <leafValues>
            3.4036335349082947e-01 -3.4471344947814941e-01</leafValues></_>
        <_>
          <internalNodes>
            0 -1 51 -3.6853954195976257e-02</internalNodes>
          <leafValues>
            6.1529535055160522e-01 -2.0682886242866516e-01</leafValues></_></weakClassifiers></_>
    <!-- stage 8 -->
    <_>
      <maxWeakCount>9</maxWeakCount>
      <stageThreshold>-1.4180711507797241e+00</stageThreshold>
      <weakClassifiers>
        <_>
          <internalNodes>
            0 -1 173 -1.2626316398382187e-02</internalNodes>
          <leafValues>
            5.2631580829620361e-01 -7.5243145227432251e-01</leafValues></_>
        <_>
          <internalNodes>
            0 -1 134 -4.2809573933482170e-03</internalNodes>
          <leafValues>
            2.0413483679294586e-01 -5.8801823854446411e-01</leafValues></_>
        <_>
          <internalNodes>
            0 -1 54 2.6599798002280295e-04</internalNodes>
          <leafValues>
            2.4811200797557831e-01 -5.3970050811767578e-01</leafValues></_>
        <_>
          <internalNodes>
            0 -1 18 -2.5518769025802612e-01</internalNodes>
          <leafValues>
            2.4241444468498230e-01 -5.5610698461532593e-01</leafValues></_>
        <_>
          <internalNodes>
            0 -1 74 -7.1865260601043701e-02</internalNodes>
          <leafValues>
            5.7826447486877441e-01 -2.7602088451385498e-01</leafValues></_>
        <_>
          <internalNodes>
            0 -1 102 -1.2631118297576904e-03</internalNodes>
          <leafValues>
            -6.4814007282257080e-01 2.5160929560661316e-01</leafValues></_>
        <_>
          <internalNodes>
            0 -1 27 1.0541193187236786e-03</internalNodes>
          <leafValues>
            1.8801560997962952e-01 -5.9498167037963867e-01</leafValues></_>
        <_>
          <internalNodes>
            0 -1 3 1.4646905474364758e-03</internalNodes>
          <leafValues>
            -3.6568343639373779e-01 3.5198768973350525e-01</leafValues></_>
        <_>
          <internalNodes>
            0 -1 165 -4.3329715728759766e-02</internalNodes>
          <leafValues>
            4.8707023262977600e-01 -2.3782725632190704e-01</leafValues></_></weakClassifiers></_>
    <!-- stage 9 -->
    <_>
      <maxWeakCount>9</maxWeakCount>
      <stageThreshold>-1.7716939449310303e+00</stageThreshold>
      <weakClassifiers>
        <_>
          <internalNodes>
            0 -1 142 1.5052057802677155e-02</internalNodes>
          <leafValues>
            -8.0604797601699829e-01 -2.7619048953056335e-01</leafValues></_>
        <_>
          <internalNodes>
            0 -1 168 1.7436023801565170e-02</internalNodes>
          <leafValues>
            -5.8372867107391357e-01 1.2684093415737152e-01</leafValues></_>
        <_>
          <internalNodes>
            0 -1 161 -6.0047758743166924e-03</internalNodes>
          <leafValues>
            3.9497509598731995e-01 -3.0598217248916626e-01</leafValues></_>
        <_>
          <internalNodes>
            0 -1 19 -5.8178517967462540e-02</internalNodes>
          <leafValues>
            2.6417803764343262e-01 -4.7714430093765259e-01</leafValues></_>
        <_>
          <internalNodes>
            0 -1 111 -3.3795230090618134e-02</internalNodes>
          <leafValues>
            3.0964541435241699e-01 -4.0038228034973145e-01</leafValues></_>
        <_>
          <internalNodes>
            0 -1 83 -8.1380154006183147e-04</internalNodes>
          <leafValues>
            4.6265518665313721e-01 -3.1509545445442200e-01</leafValues></_>
        <_>
          <internalNodes>
            0 -1 151 -3.6708469269797206e-04</internalNodes>
          <leafValues>
            4.1015139222145081e-01 -2.7287805080413818e-01</leafValues></_>
        <_>
          <internalNodes>
            0 -1 129 -2.4375198408961296e-03</internalNodes>
          <leafValues>
            -8.4813946485519409e-01 1.6064907610416412e-01</leafValues></_>
        <_>
          <internalNodes>
            0 -1 155 6.8625696003437042e-03</internalNodes>
          <leafValues>
            -2.2297601401805878e-01 5.8409678936004639e-01</leafValues></_></weakClassifiers></_>
    <!-- stage 10 -->
    <_>
      <maxWeakCount>10</maxWeakCount>
      <stageThreshold>-1.5454167127609253e+00</stageThreshold>
      <weakClassifiers>
        <_>
          <internalNodes>
            0 -1 128 -4.0095588192343712e-03</internalNodes>
          <leafValues>
            -2.7678570151329041e-01 -8.1375658512115479e-01</leafValues></_>
        <_>
          <internalNodes>
            0 -1 71 -8.5477344691753387e-03</internalNodes>
          <leafValues>
            8.1088162958621979e-02 -5.9076601266860962e-01</leafValues></_>
        <_>
          <internalNodes>
            0 -1 66 -1.6804400365799665e-03</internalNodes>
          <leafValues>
            2.4763329327106476e-01 -4.4715368747711182e-01</leafValues></_>
        <_>
          <internalNodes>
            0 -1 20 -6.4354389905929565e-02</internalNodes>
          <leafValues>
            1.1115125566720963e-01 -7.6567488908767700e-01</leafValues></_>
        <_>
          <internalNodes>
            0 -1 9 -5.7023181580007076e-03</internalNodes>
          <leafValues>
            4.5066058635711670e-01 -2.7578645944595337e-01</leafValues></_>
        <_>
          <internalNodes>
            0 -1 5 -6.7343860864639282e-02</internalNodes>
          <leafValues>
            -6.8958228826522827e-01 1.5135678648948669e-01</leafValues></_>
        <_>
          <internalNodes>
            0 -1 171 -4.1772350668907166e-03</internalNodes>
          <leafValues>
            4.6492841839790344e-01 -2.1290631592273712e-01</leafValues></_>
        <_>
          <internalNodes>
            0 -1 32 -1.2445374159142375e-03</internalNodes>
          <leafValues>
            3.3947604894638062e-01 -3.0429512262344360e-01</leafValues></_>
        <_>
          <internalNodes>
            0 -1 114 1.7080090474337339e-03</internalNodes>
          <leafValues>
            -3.6865815520286560e-01 2.8658610582351685e-01</leafValues></_>
        <_>
          <internalNodes>
            0 -1 26 -9.3923939857631922e-04</internalNodes>
          <leafValues>
            -7.3097473382949829e-01 1.0508394986391068e-01</leafValues></_></weakClassifiers></_>
    <!-- stage 11 -->
    <_>
      <maxWeakCount>9</maxWeakCount>
      <stageThreshold>-1.4426366090774536e+00</stageThreshold>
      <weakClassifiers>
        <_>
          <internalNodes>
            0 -1 7 -1.8786519765853882e-02</internalNodes>
          <leafValues>
            -1.8120805919170380e-01 -7.8823530673980713e-01</leafValues></_>
        <_>
          <internalNodes>
            0 -1 159 4.3324463069438934e-02</internalNodes>
          <leafValues>
            -5.9186267852783203e-01 4.7770567238330841e-02</leafValues></_>
        <_>
          <internalNodes>
            0 -1 130 -1.6896307934075594e-03</internalNodes>
          <leafValues>
            3.1442707777023315e-01 -3.5339838266372681e-01</leafValues></_>
        <_>
          <internalNodes>
            0 -1 24 1.9644262269139290e-02</internalNodes>
          <leafValues>
            -2.0968469977378845e-01 4.7872918844223022e-01</leafValues></_>
        <_>
          <internalNodes>
            0 -1 137 -2.4500323925167322e-03</internalNodes>
          <leafValues>
            5.0687217712402344e-01 -2.4668985605239868e-01</leafValues></_>
        <_>
          <internalNodes>
            0 -1 132 3.7129700183868408e-02</internalNodes>
          <leafValues>
            1.5083095431327820e-01 -6.6628432273864746e-01</leafValues></_>
        <_>
          <internalNodes>
            0 -1 106 -8.5816821083426476e-03</internalNodes>
          <leafValues>
            7.8268218040466309e-01 -1.4685879647731781e-01</leafValues></_>
        <_>
          <internalNodes>
            0 -1 115 1.3792020082473755e-01</internalNodes>
          <leafValues>
            -2.5299078226089478e-01 3.7053075432777405e-01</leafValues></_>
        <_>
          <internalNodes>
            0 -1 145 -1.7462717369198799e-03</internalNodes>
          <leafValues>
            3.9151996374130249e-01 -2.7859979867935181e-01</leafValues></_></weakClassifiers></_>
    <!-- stage 12 -->
    <_>
      <maxWeakCount>14</maxWeakCount>
      <stageThreshold>-1.5498869419097900e+00</stageThreshold>
      <weakClassifiers>
        <_>
          <internalNodes>
            0 -1 61 -2.3881940171122551e-02</internalNodes>
          <leafValues>
            1. -7.3460537195205688e-01</leafValues></_>
        <_>
          <internalNodes>
            0 -1 113 1.0478679090738297e-02</internalNodes>
          <leafValues>
            -4.0539339184761047e-01 3.0130696296691895e-01</leafValues></_>
        <_>
          <internalNodes>
            0 -1 107 3.2084196573123336e-04</internalNodes>
          <leafValues>
            1.5552370250225067e-01 -5.6746053695678711e-01</leafValues></_>
        <_>
          <internalNodes>
            0 -1 177 7.5702248141169548e-03</internalNodes>
          <leafValues>
            -2.1312612295150757e-01 4.3241864442825317e-01</leafValues></_>
        <_>
          <internalNodes>
            0 -1 22 7.5100004323758185e-05</internalNodes>
          <leafValues>
            2.1943338215351105e-01 -5.7878965139389038e-01</leafValues></_>
        <_>
          <internalNodes>
            0 -1 135 -9.4281602650880814e-03</internalNodes>
          <leafValues>
            2.8760874271392822e-01 -3.5947337746620178e-01</leafValues></_>
        <_>
          <internalNodes>
            0 -1 174 4.6534063294529915e-03</internalNodes>
          <leafValues>
            -1.8293423950672150e-01 5.5937659740447998e-01</leafValues></_>
        <_>
          <internalNodes>
            0 -1 117 2.5903040543198586e-02</internalNodes>
          <leafValues>
            -2.4450078606605530e-01 3.8929575681686401e-01</leafValues></_>
        <_>
          <internalNodes>
            0 -1 75 4.6201841905713081e-03</internalNodes>
          <leafValues>
            2.2147795557975769e-01 -4.7321271896362305e-01</leafValues></_>
        <_>
          <internalNodes>
            0 -1 56 -5.2743352949619293e-02</internalNodes>
          <leafValues>
            -3.7391781806945801e-01 2.6271489262580872e-01</leafValues></_>
        <_>
          <internalNodes>
            0 -1 119 -2.1191403269767761e-02</internalNodes>
          <leafValues>
            4.2060431838035583e-01 -2.7511379122734070e-01</leafValues></_>
        <_>
          <internalNodes>
            0 -1 8 -7.0166975259780884e-02</internalNodes>
          <leafValues>
            1.6688202321529388e-01 -5.6750780344009399e-01</leafValues></_>
        <_>
          <internalNodes>
            0 -1 59 -6.4618084579706192e-03</internalNodes>
          <leafValues>
            3.1814336776733398e-01 -3.2491356134414673e-01</leafValues></_>
        <_>
          <internalNodes>
            0 -1 126 -4.5027349144220352e-02</internalNodes>
          <leafValues>
            4.3643489480018616e-01 -2.2806249558925629e-01</leafValues></_></weakClassifiers></_>
    <!-- stage 13 -->
    <_>
      <maxWeakCount>12</maxWeakCount>
      <stageThreshold>-1.7886464595794678e+00</stageThreshold>
      <weakClassifiers>
        <_>
          <internalNodes>
            0 -1 167 -1.6892813146114349e-02</internalNodes>
          <leafValues>
            8.2608693838119507e-01 -7.4171030521392822e-01</leafValues></_>
        <_>
          <internalNodes>
            0 -1 84 -2.7060704305768013e-03</internalNodes>
          <leafValues>
            3.0957698822021484e-01 -4.2569619417190552e-01</leafValues></_>
        <_>
          <internalNodes>
            0 -1 77 9.4551011919975281e-02</internalNodes>
          <leafValues>
            1.0132206231355667e-01 -1.</leafValues></_>
        <_>
          <internalNodes>
            0 -1 35 1.0501617565751076e-02</internalNodes>
          <leafValues>
            -1.2769298255443573e-01 7.8190875053405762e-01</leafValues></_>
        <_>
          <internalNodes>
            0 -1 121 -1.5152087435126305e-03</internalNodes>
          <leafValues>
            -8.3999431133270264e-01 1.3665550947189331e-01</leafValues></_>
        <_>
          <internalNodes>
            0 -1 64 -1.0602579265832901e-01</internalNodes>
          <leafValues>
            2.9910242557525635e-01 -3.1375604867935181e-01</leafValues></_>
        <_>
          <internalNodes>
            0 -1 90 -6.1113073024898767e-04</internalNodes>
          <leafValues>
            3.0305191874504089e-01 -3.1299322843551636e-01</leafValues></_>
        <_>
          <internalNodes>
            0 -1 179 1.5057995915412903e-03</internalNodes>
          <leafValues>
            -1.7581933736801147e-01 5.6825309991836548e-01</leafValues></_>
        <_>
          <internalNodes>
            0 -1 39 3.8213108200579882e-04</internalNodes>
          <leafValues>
            1.6575908660888672e-01 -6.1872613430023193e-01</leafValues></_>
        <_>
          <internalNodes>
            0 -1 81 -2.5187048595398664e-04</internalNodes>
          <leafValues>
            -3.8193741440773010e-01 2.4629154801368713e-01</leafValues></_>
        <_>
          <internalNodes>
            0 -1 91 -6.5315508982166648e-04</internalNodes>
          <leafValues>
            3.2484239339828491e-01 -2.9131072759628296e-01</leafValues></_>
        <_>
          <internalNodes>
            0 -1 157 5.0783795304596424e-03</internalNodes>
          <leafValues>
            -1.5674008429050446e-01 6.0613340139389038e-01</leafValues></_></weakClassifiers></_>
    <!-- stage 14 -->
    <_>
      <maxWeakCount>10</maxWeakCount>
      <stageThreshold>-1.5811629295349121e+00</stageThreshold>
      <weakClassifiers>
        <_>
          <internalNodes>
            0 -1 46 -1.9773486256599426e-01</internalNodes>
          <leafValues>
            -2.7777779102325439e-01 -8.0902415513992310e-01</leafValues></_>
        <_>
          <internalNodes>
            0 -1 125 2.2795030847191811e-02</internalNodes>
          <leafValues>
            -5.4698878526687622e-01 5.9599887579679489e-02</leafValues></_>
        <_>
          <internalNodes>
            0 -1 100 3.2392680644989014e-02</internalNodes>
          <leafValues>
            9.4569370150566101e-02 -8.6239010095596313e-01</leafValues></_>
        <_>
          <internalNodes>
            0 -1 94 -8.4658423438668251e-03</internalNodes>
          <leafValues>
            1.9089043140411377e-01 -5.3023302555084229e-01</leafValues></_>
        <_>
          <internalNodes>
            0 -1 40 2.8757004067301750e-02</internalNodes>
          <leafValues>
            8.6542211472988129e-02 -1.</leafValues></_>
        <_>
          <internalNodes>
            0 -1 49 -6.0924865305423737e-02</internalNodes>
          <leafValues>
            5.1678490638732910e-01 -1.7091989517211914e-01</leafValues></_>
        <_>
          <internalNodes>
            0 -1 30 -1.8909380305558443e-03</internalNodes>
          <leafValues>
            1.7990468442440033e-01 -5.9243482351303101e-01</leafValues></_>
        <_>
          <internalNodes>
            0 -1 79 -1.5551345422863960e-03</internalNodes>
          <leafValues>
            2.8369605541229248e-01 -3.1162753701210022e-01</leafValues></_>
        <_>
          <internalNodes>
            0 -1 92 -2.0981812849640846e-03</internalNodes>
          <leafValues>
            4.5028811693191528e-01 -2.3504647612571716e-01</leafValues></_>
        <_>
          <internalNodes>
            0 -1 68 -1.0197136551141739e-02</internalNodes>
          <leafValues>
            -7.4259775876998901e-01 1.3970665633678436e-01</leafValues></_></weakClassifiers></_>
    <!-- stage 15 -->
    <_>
      <maxWeakCount>11</maxWeakCount>
      <stageThreshold>-1.6577267646789551e+00</stageThreshold>
      <weakClassifiers>
        <_>
          <internalNodes>
            0 -1 53 7.0497626438736916e-03</internalNodes>
          <leafValues>
            -7.4019181728363037e-01 8.1818181276321411e-01</leafValues></_>
        <_>
          <internalNodes>
            0 -1 140 1.3739590346813202e-01</internalNodes>
          <leafValues>
            -4.8139604926109314e-01 2.3067842423915863e-01</leafValues></_>
        <_>
          <internalNodes>
            0 -1 37 -1.9807775970548391e-03</internalNodes>
          <leafValues>
            3.6593714356422424e-01 -3.4202182292938232e-01</leafValues></_>
        <_>
          <internalNodes>
            0 -1 67 -5.6733330711722374e-04</internalNodes>
          <leafValues>
            2.4624837934970856e-01 -4.5490255951881409e-01</leafValues></_>
        <_>
          <internalNodes>
            0 -1 41 -5.0595018547028303e-04</internalNodes>
          <leafValues>
            4.7695440053939819e-01 -2.8111839294433594e-01</leafValues></_>
        <_>
          <internalNodes>
            0 -1 110 -1.5441138297319412e-02</internalNodes>
          <leafValues>
            -8.8171654939651489e-01 9.4122178852558136e-02</leafValues></_>
        <_>
          <internalNodes>
            0 -1 2 1.3925342354923487e-03</internalNodes>
          <leafValues>
            -2.7353093028068542e-01 3.6116236448287964e-01</leafValues></_>
        <_>
          <internalNodes>
            0 -1 96 -1.6535990289412439e-04</internalNodes>
          <leafValues>
            -4.2990955710411072e-01 2.2803592681884766e-01</leafValues></_>
        <_>
          <internalNodes>
            0 -1 69 -8.8356889318674803e-04</internalNodes>
          <leafValues>
            7.9149705171585083e-01 -1.4088191092014313e-01</leafValues></_>
        <_>
          <internalNodes>
            0 -1 131 1.1203591711819172e-03</internalNodes>
          <leafValues>
            2.1361732482910156e-01 -4.6595945954322815e-01</leafValues></_>
        <_>
          <internalNodes>
            0 -1 48 -5.2407095208764076e-03</internalNodes>
          <leafValues>
            6.0573011636734009e-01 -1.8060964345932007e-01</leafValues></_></weakClassifiers></_>
    <!-- stage 16 -->
    <_>
      <maxWeakCount>11</maxWeakCount>
      <stageThreshold>-1.6268118619918823e+00</stageThreshold>
      <weakClassifiers>
        <_>
          <internalNodes>
            0 -1 169 2.0664576441049576e-02</internalNodes>
          <leafValues>
            -7.4165201187133789e-01 4.1935482621192932e-01</leafValues></_>
        <_>
          <internalNodes>
            0 -1 163 -1.5002816217020154e-03</internalNodes>
          <leafValues>
            1.3012057542800903e-01 -4.6456873416900635e-01</leafValues></_>
        <_>
          <internalNodes>
            0 -1 118 3.6026742309331894e-02</internalNodes>
          <leafValues>
            8.5667990148067474e-02 -8.6294841766357422e-01</leafValues></_>
        <_>
          <internalNodes>
            0 -1 144 2.1467055194079876e-03</internalNodes>
          <leafValues>
            1.4965417981147766e-01 -6.6805762052536011e-01</leafValues></_>
        <_>
          <internalNodes>
            0 -1 4 -2.2182568907737732e-02</internalNodes>
          <leafValues>
            3.0176705121994019e-01 -3.1432881951332092e-01</leafValues></_>
        <_>
          <internalNodes>
            0 -1 170 1.2490240857005119e-02</internalNodes>
          <leafValues>
            -3.5794228315353394e-01 2.7572408318519592e-01</leafValues></_>
        <_>
          <internalNodes>
            0 -1 76 -3.4940196201205254e-04</internalNodes>
          <leafValues>
            1.8029344081878662e-01 -3.9724338054656982e-01</leafValues></_>
        <_>
          <internalNodes>
            0 -1 55 4.8525403253734112e-03</internalNodes>
          <leafValues>
            1.0479626804590225e-01 -7.2774857282638550e-01</leafValues></_>
        <_>
          <internalNodes>
            0 -1 86 1.6806966159492731e-03</internalNodes>
          <leafValues>
            1.6558821499347687e-01 -4.4106292724609375e-01</leafValues></_>
        <_>
          <internalNodes>
            0 -1 0 -1.7517931759357452e-02</internalNodes>
          <leafValues>
            -7.8327620029449463e-01 9.2138692736625671e-02</leafValues></_>
        <_>
          <internalNodes>
            0 -1 105 -6.2983128009364009e-04</internalNodes>
          <leafValues>
            2.5802141427993774e-01 -3.0343633890151978e-01</leafValues></_></weakClassifiers></_>
    <!-- stage 17 -->
    <_>
      <maxWeakCount>13</maxWeakCount>
      <stageThreshold>-1.8424885272979736e+00</stageThreshold>
      <weakClassifiers>
        <_>
          <internalNodes>
            0 -1 15 -1.7365371808409691e-02</internalNodes>
          <leafValues>
            1. -7.3310226202011108e-01</leafValues></_>
        <_>
          <internalNodes>
            0 -1 127 -8.2577958703041077e-02</internalNodes>
          <leafValues>
            1.8753801286220551e-01 -4.2465123534202576e-01</leafValues></_>
        <_>
          <internalNodes>
            0 -1 12 -1.7455166578292847e-01</internalNodes>
          <leafValues>
            2.4739398062229156e-01 -3.9453768730163574e-01</leafValues></_>
        <_>
          <internalNodes>
            0 -1 150 2.4703626986593008e-03</internalNodes>
          <leafValues>
            -3.3533614873886108e-01 2.5165620446205139e-01</leafValues></_>
        <_>
          <internalNodes>
            0 -1 47 -3.3411290496587753e-02</internalNodes>
          <leafValues>
            2.9844069480895996e-01 -2.9756060242652893e-01</leafValues></_>
        <_>
          <internalNodes>
            0 -1 164 2.3987581953406334e-03</internalNodes>
          <leafValues>
            -9.6368148922920227e-02 8.0336368083953857e-01</leafValues></_>
        <_>
          <internalNodes>
            0 -1 85 5.1639985758811235e-04</internalNodes>
          <leafValues>
            1.9773530960083008e-01 -4.1675886511802673e-01</leafValues></_>
        <_>
          <internalNodes>
            0 -1 139 -2.0018822979182005e-03</internalNodes>
          <leafValues>
            4.9548348784446716e-01 -1.8050265312194824e-01</leafValues></_>
        <_>
          <internalNodes>
            0 -1 60 -5.6124228285625577e-04</internalNodes>
          <leafValues>
            4.9312877655029297e-01 -1.8590813875198364e-01</leafValues></_>
        <_>
          <internalNodes>
            0 -1 33 -8.3004243671894073e-02</internalNodes>
          <leafValues>
            -9.5090532302856445e-01 9.8059125244617462e-02</leafValues></_>
        <_>
          <internalNodes>
            0 -1 136 -5.3116600611247122e-05</internalNodes>
          <leafValues>
            2.6620465517044067e-01 -3.0643993616104126e-01</leafValues></_>
        <_>
          <internalNodes>
            0 -1 78 -3.8117030635476112e-03</internalNodes>
          <leafValues>
            3.5892930626869202e-01 -2.2769893705844879e-01</leafValues></_>
        <_>
          <internalNodes>
            0 -1 36 -1.0343298316001892e-02</internalNodes>
          <leafValues>
            3.8672530651092529e-01 -2.0066274702548981e-01</leafValues></_></weakClassifiers></_>
    <!-- stage 18 -->
    <_>
      <maxWeakCount>11</maxWeakCount>
      <stageThreshold>-1.6467148065567017e+00</stageThreshold>
      <weakClassifiers>
        <_>
          <internalNodes>
            0 -1 97 -9.7871292382478714e-03</internalNodes>
          <leafValues>
            8.0000001192092896e-01 -7.3716276884078979e-01</leafValues></_>
        <_>
          <internalNodes>
            0 -1 166 -1.7814462771639228e-03</internalNodes>
          <leafValues>
            4.2902284860610962e-01 -3.2470840215682983e-01</leafValues></_>
        <_>
          <internalNodes>
            0 -1 181 -8.9011583477258682e-03</internalNodes>
          <leafValues>
            -6.3527512550354004e-01 1.3219237327575684e-01</leafValues></_>
        <_>
          <internalNodes>
            0 -1 2 1.2616787571460009e-03</internalNodes>
          <leafValues>
            -3.1848216056823730e-01 2.9542773962020874e-01</leafValues></_>
        <_>
          <internalNodes>
            0 -1 63 -6.6183749586343765e-03</internalNodes>
          <leafValues>
            -1. 1.0555173456668854e-01</leafValues></_>
        <_>
          <internalNodes>
            0 -1 34 -3.3091213554143906e-03</internalNodes>
          <leafValues>
            4.5347902178764343e-01 -1.9909846782684326e-01</leafValues></_>
        <_>
          <internalNodes>
            0 -1 172 -3.0259748455137014e-03</internalNodes>
          <leafValues>
            5.4849177598953247e-01 -1.6586248576641083e-01</leafValues></_>
        <_>
          <internalNodes>
            0 -1 147 -8.2731887232512236e-04</internalNodes>
          <leafValues>
            5.0355178117752075e-01 -1.6853608191013336e-01</leafValues></_>
        <_>
          <internalNodes>
            0 -1 25 -6.4777256920933723e-03</internalNodes>
          <leafValues>
            -5.0377672910690308e-01 2.0596870779991150e-01</leafValues></_>
        <_>
          <internalNodes>
            0 -1 103 -7.3203435167670250e-03</internalNodes>
          <leafValues>
            3.7196460366249084e-01 -3.0179572105407715e-01</leafValues></_>
        <_>
          <internalNodes>
            0 -1 148 -2.5255916989408433e-04</internalNodes>
          <leafValues>
            -5.9252768754959106e-01 1.5646155178546906e-01</leafValues></_></weakClassifiers></_>
    <!-- stage 19 -->
    <_>
      <maxWeakCount>10</maxWeakCount>
      <stageThreshold>-1.3124922513961792e+00</stageThreshold>
      <weakClassifiers>
        <_>
          <internalNodes>
            0 -1 6 -2.1650383248925209e-02</internalNodes>
          <leafValues>
            1. -7.4216026067733765e-01</leafValues></_>
        <_>
          <internalNodes>
            0 -1 116 -6.0025276616215706e-04</internalNodes>
          <leafValues>
            1.9236885011196136e-01 -4.6181869506835938e-01</leafValues></_>
        <_>
          <internalNodes>
            0 -1 153 -5.7205935008823872e-03</internalNodes>
          <leafValues>
            4.8599696159362793e-01 -2.3865088820457458e-01</leafValues></_>
        <_>
          <internalNodes>
            0 -1 62 -1.2437485158443451e-02</internalNodes>
          <leafValues>
            4.8773694038391113e-01 -2.0062451064586639e-01</leafValues></_>
        <_>
          <internalNodes>
            0 -1 156 3.0943178571760654e-03</internalNodes>
          <leafValues>
            -2.0548829436302185e-01 5.2200967073440552e-01</leafValues></_>
        <_>
          <internalNodes>
            0 -1 95 -2.0240466110408306e-03</internalNodes>
          <leafValues>
            4.5333066582679749e-01 -2.2266238927841187e-01</leafValues></_>
        <_>
          <internalNodes>
            0 -1 123 3.0811682809144258e-03</internalNodes>
          <leafValues>
            -2.0380789041519165e-01 5.5781328678131104e-01</leafValues></_>
        <_>
          <internalNodes>
            0 -1 43 1.0329626966267824e-03</internalNodes>
          <leafValues>
            3.0623859167098999e-01 -4.8370093107223511e-01</leafValues></_>
        <_>
          <internalNodes>
            0 -1 124 -4.3990630656480789e-03</internalNodes>
          <leafValues>
            4.5013830065727234e-01 -3.0135041475296021e-01</leafValues></_>
        <_>
          <internalNodes>
            0 -1 122 3.2052183087216690e-05</internalNodes>
          <leafValues>
            -3.6807119846343994e-01 4.0160378813743591e-01</leafValues></_></weakClassifiers></_></stages>
  <features>
    <_>
      <rects>
        <_>
          0 0 1 20 -1.</_>
        <_>
          0 10 1 10 2.</_></rects>
      <tilted>0</tilted></_>
    <_>
      <rects>
        <_>
          0 0 4 1 -1.</_>
        <_>
          2 0 2 1 2.</_></rects>
      <tilted>0</tilted></_>
    <_>
      <rects>
        <_>
          0 0 4 2 -1.</_>
        <_>
          2 0 2 2 2.</_></rects>
      <tilted>0</tilted></_>
    <_>
      <rects>
        <_>
          0 0 4 3 -1.</_>
        <_>
          2 0 2 3 2.</_></rects>
      <tilted>0</tilted></_>
    <_>
      <rects>
        <_>
          0 0 10 8 -1.</_>
        <_>
          0 0 5 4 2.</_>
        <_>
          5 4 5 4 2.</_></rects>
      <tilted>0</tilted></_>
    <_>
      <rects>
        <_>
          0 0 10 9 -1.</_>
        <_>
          5 0 5 9 2.</_></rects>
      <tilted>0</tilted></_>
    <_>
      <rects>
        <_>
          0 2 8 4 -1.</_>
        <_>
          0 2 4 2 2.</_>
        <_>
          4 4 4 2 2.</_></rects>
      <tilted>0</tilted></_>
    <_>
      <rects>
        <_>
          0 2 8 6 -1.</_>
        <_>
          0 2 4 3 2.</_>
        <_>
          4 5 4 3 2.</_></rects>
      <tilted>0</tilted></_>
    <_>
      <rects>
        <_>
          0 2 18 20 -1.</_>
        <_>
          6 2 6 20 3.</_></rects>
      <tilted>0</tilted></_>
    <_>
      <rects>
        <_>
          0 2 14 2 -1.</_>
        <_>
          0 3 14 1 2.</_></rects>
      <tilted>0</tilted></_>
    <_>
      <rects>
        <_>
          0 3 8 21 -1.</_>
        <_>
          4 3 4 21 2.</_></rects>
      <tilted>0</tilted></_>
    <_>
      <rects>
        <_>
          0 4 8 15 -1.</_>
        <_>
          4 4 4 15 2.</_></rects>
      <tilted>0</tilted></_>
    <_>
      <rects>
        <_>
          0 4 21 15 -1.</_>
        <_>
          7 4 7 15 3.</_></rects>
      <tilted>0</tilted></_>
    <_>
      <rects>
        <_>
          0 4 21 4 -1.</_>
        <_>
          0 6 21 2 2.</_></rects>
      <tilted>0</tilted></_>
    <_>
      <rects>
        <_>
          0 5 21 18 -1.</_>
        <_>
          7 5 7 18 3.</_></rects>
      <tilted>0</tilted></_>
    <_>
      <rects>
        <_>
          0 7 6 4 -1.</_>
        <_>
          0 7 3 2 2.</_>
        <_>
          3 9 3 2 2.</_></rects>
      <tilted>0</tilted></_>
    <_>
      <rects>
        <_>
          0 7 24 9 -1.</_>
        <_>
          8 7 8 9 3.</_></rects>
      <tilted>0</tilted></_>
    <_>
      <rects>
        <_>
          0 8 10 15 -1.</_>
        <_>
          5 8 5 15 2.</_></rects>
      <tilted>0</tilted></_>
    <_>
      <rects>
        <_>
          0 8 24 16 -1.</_>
        <_>
          8 8 8 16 3.</_></rects>
      <tilted>0</tilted></_>
    <_>
      <rects>
        <_>
          0 9 18 9 -1.</_>
        <_>
          6 9 6 9 3.</_></rects>
      <tilted>0</tilted></_>
    <_>
      <rects>
        <_>
          0 9 24 8 -1.</_>
        <_>
          8 9 8 8 3.</_></rects>
      <tilted>0</tilted></_>
    <_>
      <rects>
        <_>
          0 9 11 9 -1.</_>
        <_>
          0 12 11 3 3.</_></rects>
      <tilted>0</tilted></_>
    <_>
      <rects>
        <_>
          0 10 10 1 -1.</_>
        <_>
          5 10 5 1 2.</_></rects>
      <tilted>0</tilted></_>
    <_>
      <rects>
        <_>
          0 12 10 11 -1.</_>
        <_>
          5 12 5 11 2.</_></rects>
      <tilted>0</tilted></_>
    <_>
      <rects>
        <_>
          0 13 21 6 -1.</_>
        <_>
          0 15 21 2 3.</_></rects>
      <tilted>0</tilted></_>
    <_>
      <rects>
        <_>
          0 14 10 10 -1.</_>
        <_>
          0 14 5 5 2.</_>
        <_>
          5 19 5 5 2.</_></rects>
      <tilted>0</tilted></_>
    <_>
      <rects>
        <_>
          0 16 2 4 -1.</_>
        <_>
          0 16 1 2 2.</_>
        <_>
          1 18 1 2 2.</_></rects>
      <tilted>0</tilted></_>
    <_>
      <rects>
        <_>
          0 16 2 5 -1.</_>
        <_>
          1 16 1 5 2.</_></rects>
      <tilted>0</tilted></_>
    <_>
      <rects>
        <_>
          0 17 8 4 -1.</_>
        <_>
          0 17 4 2 2.</_>
        <_>
          4 19 4 2 2.</_></rects>
      <tilted>0</tilted></_>
    <_>
      <rects>
        <_>
          0 17 8 3 -1.</_>
        <_>
          4 17 4 3 2.</_></rects>
      <tilted>0</tilted></_>
    <_>
      <rects>
        <_>
          0 17 8 4 -1.</_>
        <_>
          4 17 4 4 2.</_></rects>
      <tilted>0</tilted></_>
    <_>
      <rects>
        <_>
          0 17 8 6 -1.</_>
        <_>
          4 17 4 6 2.</_></rects>
      <tilted>0</tilted></_>
    <_>
      <rects>
        <_>
          0 18 24 2 -1.</_>
        <_>
          0 19 24 1 2.</_></rects>
      <tilted>0</tilted></_>
    <_>
      <rects>
        <_>
          0 18 24 6 -1.</_>
        <_>
          0 21 24 3 2.</_></rects>
      <tilted>0</tilted></_>
    <_>
      <rects>
        <_>
          1 1 3 11 -1.</_>
        <_>
          2 1 1 11 3.</_></rects>
      <tilted>0</tilted></_>
    <_>
      <rects>
        <_>
          1 3 3 14 -1.</_>
        <_>
          2 3 1 14 3.</_></rects>
      <tilted>0</tilted></_>
    <_>
      <rects>
        <_>
          1 3 6 13 -1.</_>
        <_>
          3 3 2 13 3.</_></rects>
      <tilted>0</tilted></_>
    <_>
      <rects>
        <_>
          1 6 15 6 -1.</_>
        <_>
          1 8 15 2 3.</_></rects>
      <tilted>0</tilted></_>
    <_>
      <rects>
        <_>
          1 11 15 4 -1.</_>
        <_>
          6 11 5 4 3.</_></rects>
      <tilted>0</tilted></_>
    <_>
      <rects>
        <_>
          1 19 2 2 -1.</_>
        <_>
          2 19 1 2 2.</_></rects>
      <tilted>0</tilted></_>
    <_>
      <rects>
        <_>
          1 19 22 4 -1.</_>
        <_>
          1 19 11 2 2.</_>
        <_>
          12 21 11 2 2.</_></rects>
      <tilted>0</tilted></_>
    <_>
      <rects>
        <_>
          1 20 5 2 -1.</_>
        <_>
          1 21 5 1 2.</_></rects>
      <tilted>0</tilted></_>
    <_>
      <rects>
        <_>
          1 22 9 1 -1.</_>
        <_>
          4 22 3 1 3.</_></rects>
      <tilted>0</tilted></_>
    <_>
      <rects>
        <_>
          1 23 6 1 -1.</_>
        <_>
          3 23 2 1 3.</_></rects>
      <tilted>0</tilted></_>
    <_>
      <rects>
        <_>
          2 0 6 21 -1.</_>
        <_>
          2 7 6 7 3.</_></rects>
      <tilted>0</tilted></_>
    <_>
      <rects>
        <_>
          2 0 16 12 -1.</_>
        <_>
          2 6 16 6 2.</_></rects>
      <tilted>0</tilted></_>
    <_>
      <rects>
        <_>
          2 0 20 10 -1.</_>
        <_>
          2 5 20 5 2.</_></rects>
      <tilted>0</tilted></_>
    <_>
      <rects>
        <_>
          2 1 6 12 -1.</_>
        <_>
          2 7 6 6 2.</_></rects>
      <tilted>0</tilted></_>
    <_>
      <rects>
        <_>
          2 2 3 12 -1.</_>
        <_>
          3 2 1 12 3.</_></rects>
      <tilted>0</tilted></_>
    <_>
      <rects>
        <_>
          2 2 20 10 -1.</_>
        <_>
          2 2 10 5 2.</_>
        <_>
          12 7 10 5 2.</_></rects>
      <tilted>0</tilted></_>
    <_>
      <rects>
        <_>
          2 3 18 2 -1.</_>
        <_>
          2 4 18 1 2.</_></rects>
      <tilted>0</tilted></_>
    <_>
      <rects>
        <_>
          2 9 10 9 -1.</_>
        <_>
          2 12 10 3 3.</_></rects>
      <tilted>0</tilted></_>
    <_>
      <rects>
        <_>
          2 11 8 6 -1.</_>
        <_>
          2 13 8 2 3.</_></rects>
      <tilted>0</tilted></_>
    <_>
      <rects>
        <_>
          2 13 3 4 -1.</_>
        <_>
          3 13 1 4 3.</_></rects>
      <tilted>0</tilted></_>
    <_>
      <rects>
        <_>
          2 19 2 5 -1.</_>
        <_>
          3 19 1 5 2.</_></rects>
      <tilted>0</tilted></_>
    <_>
      <rects>
        <_>
          2 22 9 2 -1.</_>
        <_>
          5 22 3 2 3.</_></rects>
      <tilted>0</tilted></_>
    <_>
      <rects>
        <_>
          3 0 10 23 -1.</_>
        <_>
          8 0 5 23 2.</_></rects>
      <tilted>0</tilted></_>
    <_>
      <rects>
        <_>
          3 0 21 19 -1.</_>
        <_>
          10 0 7 19 3.</_></rects>
      <tilted>0</tilted></_>
    <_>
      <rects>
        <_>
          3 3 17 2 -1.</_>
        <_>
          3 4 17 1 2.</_></rects>
      <tilted>0</tilted></_>
    <_>
      <rects>
        <_>
          3 4 16 6 -1.</_>
        <_>
          3 4 8 3 2.</_>
        <_>
          11 7 8 3 2.</_></rects>
      <tilted>0</tilted></_>
    <_>
      <rects>
        <_>
          3 8 1 3 -1.</_>
        <_>
          3 9 1 1 3.</_></rects>
      <tilted>0</tilted></_>
    <_>
      <rects>
        <_>
          3 8 3 16 -1.</_>
        <_>
          4 8 1 16 3.</_></rects>
      <tilted>0</tilted></_>
    <_>
      <rects>
        <_>
          3 8 16 6 -1.</_>
        <_>
          3 10 16 2 3.</_></rects>
      <tilted>0</tilted></_>
    <_>
      <rects>
        <_>
          3 12 10 2 -1.</_>
        <_>
          3 13 10 1 2.</_></rects>
      <tilted>0</tilted></_>
    <_>
      <rects>
        <_>
          3 14 18 9 -1.</_>
        <_>
          9 14 6 9 3.</_></rects>
      <tilted>0</tilted></_>
    <_>
      <rects>
        <_>
          3 20 4 4 -1.</_>
        <_>
          5 20 2 4 2.</_></rects>
      <tilted>0</tilted></_>
    <_>
      <rects>
        <_>
          3 21 6 3 -1.</_>
        <_>
          6 21 3 3 2.</_></rects>
      <tilted>0</tilted></_>
    <_>
      <rects>
        <_>
          3 21 8 1 -1.</_>
        <_>
          7 21 4 1 2.</_></rects>
      <tilted>0</tilted></_>
    <_>
      <rects>
        <_>
          3 23 12 1 -1.</_>
        <_>
          9 23 6 1 2.</_></rects>
      <tilted>0</tilted></_>
    <_>
      <rects>
        <_>
          4 0 2 2 -1.</_>
        <_>
          4 0 1 1 2.</_>
        <_>
          5 1 1 1 2.</_></rects>
      <tilted>0</tilted></_>
    <_>
      <rects>
        <_>
          4 0 18 24 -1.</_>
        <_>
          4 8 18 8 3.</_></rects>
      <tilted>0</tilted></_>
    <_>
      <rects>
        <_>
          4 1 3 8 -1.</_>
        <_>
          4 5 3 4 2.</_></rects>
      <tilted>0</tilted></_>
    <_>
      <rects>
        <_>
          4 1 10 6 -1.</_>
        <_>
          4 4 10 3 2.</_></rects>
      <tilted>0</tilted></_>
    <_>
      <rects>
        <_>
          4 2 2 6 -1.</_>
        <_>
          4 5 2 3 2.</_></rects>
      <tilted>0</tilted></_>
    <_>
      <rects>
        <_>
          4 5 19 12 -1.</_>
        <_>
          4 9 19 4 3.</_></rects>
      <tilted>0</tilted></_>
    <_>
      <rects>
        <_>
          4 17 10 7 -1.</_>
        <_>
          9 17 5 7 2.</_></rects>
      <tilted>0</tilted></_>
    <_>
      <rects>
        <_>
          4 19 8 3 -1.</_>
        <_>
          8 19 4 3 2.</_></rects>
      <tilted>0</tilted></_>
    <_>
      <rects>
        <_>
          5 0 15 14 -1.</_>
        <_>
          10 0 5 14 3.</_></rects>
      <tilted>0</tilted></_>
    <_>
      <rects>
        <_>
          5 0 9 2 -1.</_>
        <_>
          5 1 9 1 2.</_></rects>
      <tilted>0</tilted></_>
    <_>
      <rects>
        <_>
          5 9 6 6 -1.</_>
        <_>
          5 11 6 2 3.</_></rects>
      <tilted>0</tilted></_>
    <_>
      <rects>
        <_>
          5 9 18 11 -1.</_>
        <_>
          11 9 6 11 3.</_></rects>
      <tilted>0</tilted></_>
    <_>
      <rects>
        <_>
          5 12 2 1 -1.</_>
        <_>
          6 12 1 1 2.</_></rects>
      <tilted>0</tilted></_>
    <_>
      <rects>
        <_>
          5 12 18 11 -1.</_>
        <_>
          11 12 6 11 3.</_></rects>
      <tilted>0</tilted></_>
    <_>
      <rects>
        <_>
          5 20 5 2 -1.</_>
        <_>
          5 21 5 1 2.</_></rects>
      <tilted>0</tilted></_>
    <_>
      <rects>
        <_>
          5 21 19 2 -1.</_>
        <_>
          5 22 19 1 2.</_></rects>
      <tilted>0</tilted></_>
    <_>
      <rects>
        <_>
          5 23 9 1 -1.</_>
        <_>
          8 23 3 1 3.</_></rects>
      <tilted>0</tilted></_>
    <_>
      <rects>
        <_>
          6 0 9 10 -1.</_>
        <_>
          9 0 3 10 3.</_></rects>
      <tilted>0</tilted></_>
    <_>
      <rects>
        <_>
          6 0 18 2 -1.</_>
        <_>
          6 0 9 1 2.</_>
        <_>
          15 1 9 1 2.</_></rects>
      <tilted>0</tilted></_>
    <_>
      <rects>
        <_>
          6 0 9 4 -1.</_>
        <_>
          6 2 9 2 2.</_></rects>
      <tilted>0</tilted></_>
    <_>
      <rects>
        <_>
          6 0 12 10 -1.</_>
        <_>
          6 5 12 5 2.</_></rects>
      <tilted>0</tilted></_>
    <_>
      <rects>
        <_>
          6 9 2 6 -1.</_>
        <_>
          6 11 2 2 3.</_></rects>
      <tilted>0</tilted></_>
    <_>
      <rects>
        <_>
          6 13 7 3 -1.</_>
        <_>
          6 14 7 1 3.</_></rects>
      <tilted>0</tilted></_>
    <_>
      <rects>
        <_>
          6 13 9 3 -1.</_>
        <_>
          6 14 9 1 3.</_></rects>
      <tilted>0</tilted></_>
    <_>
      <rects>
        <_>
          6 18 6 4 -1.</_>
        <_>
          9 18 3 4 2.</_></rects>
      <tilted>0</tilted></_>
    <_>
      <rects>
        <_>
          7 0 2 16 -1.</_>
        <_>
          7 8 2 8 2.</_></rects>
      <tilted>0</tilted></_>
    <_>
      <rects>
        <_>
          7 13 4 8 -1.</_>
        <_>
          7 13 2 4 2.</_>
        <_>
          9 17 2 4 2.</_></rects>
      <tilted>0</tilted></_>
    <_>
      <rects>
        <_>
          7 13 3 2 -1.</_>
        <_>
          7 14 3 1 2.</_></rects>
      <tilted>0</tilted></_>
    <_>
      <rects>
        <_>
          7 16 4 6 -1.</_>
        <_>
          7 16 2 3 2.</_>
        <_>
          9 19 2 3 2.</_></rects>
      <tilted>0</tilted></_>
    <_>
      <rects>
        <_>
          8 0 7 6 -1.</_>
        <_>
          8 3 7 3 2.</_></rects>
      <tilted>0</tilted></_>
    <_>
      <rects>
        <_>
          8 0 14 6 -1.</_>
        <_>
          8 3 14 3 2.</_></rects>
      <tilted>0</tilted></_>
    <_>
      <rects>
        <_>
          8 2 9 13 -1.</_>
        <_>
          11 2 3 13 3.</_></rects>
      <tilted>0</tilted></_>
    <_>
      <rects>
        <_>
          8 3 16 2 -1.</_>
        <_>
          8 4 16 1 2.</_></rects>
      <tilted>0</tilted></_>
    <_>
      <rects>
        <_>
          8 6 2 6 -1.</_>
        <_>
          9 6 1 6 2.</_></rects>
      <tilted>0</tilted></_>
    <_>
      <rects>
        <_>
          8 6 15 6 -1.</_>
        <_>
          8 8 15 2 3.</_></rects>
      <tilted>0</tilted></_>
    <_>
      <rects>
        <_>
          8 11 4 2 -1.</_>
        <_>
          10 11 2 2 2.</_></rects>
      <tilted>0</tilted></_>
    <_>
      <rects>
        <_>
          8 11 8 3 -1.</_>
        <_>
          8 12 8 1 3.</_></rects>
      <tilted>0</tilted></_>
    <_>
      <rects>
        <_>
          8 15 8 4 -1.</_>
        <_>
          8 15 4 2 2.</_>
        <_>
          12 17 4 2 2.</_></rects>
      <tilted>0</tilted></_>
    <_>
      <rects>
        <_>
          8 22 3 1 -1.</_>
        <_>
          9 22 1 1 3.</_></rects>
      <tilted>0</tilted></_>
    <_>
      <rects>
        <_>
          9 0 4 14 -1.</_>
        <_>
          9 7 4 7 2.</_></rects>
      <tilted>0</tilted></_>
    <_>
      <rects>
        <_>
          9 0 13 21 -1.</_>
        <_>
          9 7 13 7 3.</_></rects>
      <tilted>0</tilted></_>
    <_>
      <rects>
        <_>
          9 3 6 10 -1.</_>
        <_>
          11 3 2 10 3.</_></rects>
      <tilted>0</tilted></_>
    <_>
      <rects>
        <_>
          9 7 15 9 -1.</_>
        <_>
          14 7 5 9 3.</_></rects>
      <tilted>0</tilted></_>
    <_>
      <rects>
        <_>
          9 10 2 14 -1.</_>
        <_>
          9 17 2 7 2.</_></rects>
      <tilted>0</tilted></_>
    <_>
      <rects>
        <_>
          9 11 12 9 -1.</_>
        <_>
          9 14 12 3 3.</_></rects>
      <tilted>0</tilted></_>
    <_>
      <rects>
        <_>
          9 14 3 10 -1.</_>
        <_>
          9 19 3 5 2.</_></rects>
      <tilted>0</tilted></_>
    <_>
      <rects>
        <_>
          10 1 14 11 -1.</_>
        <_>
          17 1 7 11 2.</_></rects>
      <tilted>0</tilted></_>
    <_>
      <rects>
        <_>
          10 4 2 20 -1.</_>
        <_>
          10 4 1 10 2.</_>
        <_>
          11 14 1 10 2.</_></rects>
      <tilted>0</tilted></_>
    <_>
      <rects>
        <_>
          10 7 13 12 -1.</_>
        <_>
          10 13 13 6 2.</_></rects>
      <tilted>0</tilted></_>
    <_>
      <rects>
        <_>
          10 18 6 6 -1.</_>
        <_>
          10 21 6 3 2.</_></rects>
      <tilted>0</tilted></_>
    <_>
      <rects>
        <_>
          11 1 7 9 -1.</_>
        <_>
          11 4 7 3 3.</_></rects>
      <tilted>0</tilted></_>
    <_>
      <rects>
        <_>
          11 2 4 2 -1.</_>
        <_>
          11 3 4 1 2.</_></rects>
      <tilted>0</tilted></_>
    <_>
      <rects>
        <_>
          11 4 3 2 -1.</_>
        <_>
          12 4 1 2 3.</_></rects>
      <tilted>0</tilted></_>
    <_>
      <rects>
        <_>
          11 4 4 2 -1.</_>
        <_>
          11 4 2 1 2.</_>
        <_>
          13 5 2 1 2.</_></rects>
      <tilted>0</tilted></_>
    <_>
      <rects>
        <_>
          11 17 6 4 -1.</_>
        <_>
          11 17 3 2 2.</_>
        <_>
          14 19 3 2 2.</_></rects>
      <tilted>0</tilted></_>
    <_>
      <rects>
        <_>
          11 18 9 6 -1.</_>
        <_>
          11 20 9 2 3.</_></rects>
      <tilted>0</tilted></_>
    <_>
      <rects>
        <_>
          11 19 12 3 -1.</_>
        <_>
          17 19 6 3 2.</_></rects>
      <tilted>0</tilted></_>
    <_>
      <rects>
        <_>
          12 0 9 19 -1.</_>
        <_>
          15 0 3 19 3.</_></rects>
      <tilted>0</tilted></_>
    <_>
      <rects>
        <_>
          12 1 10 15 -1.</_>
        <_>
          12 6 10 5 3.</_></rects>
      <tilted>0</tilted></_>
    <_>
      <rects>
        <_>
          12 2 5 2 -1.</_>
        <_>
          12 3 5 1 2.</_></rects>
      <tilted>0</tilted></_>
    <_>
      <rects>
        <_>
          12 4 2 8 -1.</_>
        <_>
          13 4 1 8 2.</_></rects>
      <tilted>0</tilted></_>
    <_>
      <rects>
        <_>
          12 4 5 6 -1.</_>
        <_>
          12 6 5 2 3.</_></rects>
      <tilted>0</tilted></_>
    <_>
      <rects>
        <_>
          12 10 4 1 -1.</_>
        <_>
          14 10 2 1 2.</_></rects>
      <tilted>0</tilted></_>
    <_>
      <rects>
        <_>
          12 10 3 14 -1.</_>
        <_>
          12 17 3 7 2.</_></rects>
      <tilted>0</tilted></_>
    <_>
      <rects>
        <_>
          12 13 12 6 -1.</_>
        <_>
          18 13 6 6 2.</_></rects>
      <tilted>0</tilted></_>
    <_>
      <rects>
        <_>
          13 0 1 15 -1.</_>
        <_>
          13 5 1 5 3.</_></rects>
      <tilted>0</tilted></_>
    <_>
      <rects>
        <_>
          13 9 6 12 -1.</_>
        <_>
          13 13 6 4 3.</_></rects>
      <tilted>0</tilted></_>
    <_>
      <rects>
        <_>
          13 10 1 3 -1.</_>
        <_>
          13 11 1 1 3.</_></rects>
      <tilted>0</tilted></_>
    <_>
      <rects>
        <_>
          13 13 3 6 -1.</_>
        <_>
          13 15 3 2 3.</_></rects>
      <tilted>0</tilted></_>
    <_>
      <rects>
        <_>
          14 1 3 2 -1.</_>
        <_>
          14 2 3 1 2.</_></rects>
      <tilted>0</tilted></_>
    <_>
      <rects>
        <_>
          14 2 6 1 -1.</_>
        <_>
          16 2 2 1 3.</_></rects>
      <tilted>0</tilted></_>
    <_>
      <rects>
        <_>
          14 2 10 14 -1.</_>
        <_>
          19 2 5 14 2.</_></rects>
      <tilted>0</tilted></_>
    <_>
      <rects>
        <_>
          14 4 10 16 -1.</_>
        <_>
          19 4 5 16 2.</_></rects>
      <tilted>0</tilted></_>
    <_>
      <rects>
        <_>
          14 6 6 18 -1.</_>
        <_>
          14 6 3 9 2.</_>
        <_>
          17 15 3 9 2.</_></rects>
      <tilted>0</tilted></_>
    <_>
      <rects>
        <_>
          14 6 8 17 -1.</_>
        <_>
          18 6 4 17 2.</_></rects>
      <tilted>0</tilted></_>
    <_>
      <rects>
        <_>
          14 8 1 6 -1.</_>
        <_>
          14 11 1 3 2.</_></rects>
      <tilted>0</tilted></_>
    <_>
      <rects>
        <_>
          14 14 3 6 -1.</_>
        <_>
          14 16 3 2 3.</_></rects>
      <tilted>0</tilted></_>
    <_>
      <rects>
        <_>
          14 16 4 8 -1.</_>
        <_>
          16 16 2 8 2.</_></rects>
      <tilted>0</tilted></_>
    <_>
      <rects>
        <_>
          14 19 4 2 -1.</_>
        <_>
          14 19 2 1 2.</_>
        <_>
          16 20 2 1 2.</_></rects>
      <tilted>0</tilted></_>
    <_>
      <rects>
        <_>
          15 2 2 7 -1.</_>
        <_>
          16 2 1 7 2.</_></rects>
      <tilted>0</tilted></_>
    <_>
      <rects>
        <_>
          15 4 8 5 -1.</_>
        <_>
          19 4 4 5 2.</_></rects>
      <tilted>0</tilted></_>
    <_>
      <rects>
        <_>
          15 23 8 1 -1.</_>
        <_>
          19 23 4 1 2.</_></rects>
      <tilted>0</tilted></_>
    <_>
      <rects>
        <_>
          16 4 2 6 -1.</_>
        <_>
          16 4 1 3 2.</_>
        <_>
          17 7 1 3 2.</_></rects>
      <tilted>0</tilted></_>
    <_>
      <rects>
        <_>
          16 7 8 16 -1.</_>
        <_>
          20 7 4 16 2.</_></rects>
      <tilted>0</tilted></_>
    <_>
      <rects>
        <_>
          16 10 4 6 -1.</_>
        <_>
          16 12 4 2 3.</_></rects>
      <tilted>0</tilted></_>
    <_>
      <rects>
        <_>
          16 10 8 13 -1.</_>
        <_>
          20 10 4 13 2.</_></rects>
      <tilted>0</tilted></_>
    <_>
      <rects>
        <_>
          16 12 2 10 -1.</_>
        <_>
          17 12 1 10 2.</_></rects>
      <tilted>0</tilted></_>
    <_>
      <rects>
        <_>
          16 18 6 3 -1.</_>
        <_>
          18 18 2 3 3.</_></rects>
      <tilted>0</tilted></_>
    <_>
      <rects>
        <_>
          17 21 7 3 -1.</_>
        <_>
          17 22 7 1 3.</_></rects>
      <tilted>0</tilted></_>
    <_>
      <rects>
        <_>
          18 6 6 10 -1.</_>
        <_>
          21 6 3 10 2.</_></rects>
      <tilted>0</tilted></_>
    <_>
      <rects>
        <_>
          18 7 6 15 -1.</_>
        <_>
          21 7 3 15 2.</_></rects>
      <tilted>0</tilted></_>
    <_>
      <rects>
        <_>
          18 7 6 16 -1.</_>
        <_>
          21 7 3 16 2.</_></rects>
      <tilted>0</tilted></_>
    <_>
      <rects>
        <_>
          18 8 3 9 -1.</_>
        <_>
          18 11 3 3 3.</_></rects>
      <tilted>0</tilted></_>
    <_>
      <rects>
        <_>
          18 8 6 15 -1.</_>
        <_>
          21 8 3 15 2.</_></rects>
      <tilted>0</tilted></_>
    <_>
      <rects>
        <_>
          18 17 6 4 -1.</_>
        <_>
          18 19 6 2 2.</_></rects>
      <tilted>0</tilted></_>
    <_>
      <rects>
        <_>
          18 19 3 1 -1.</_>
        <_>
          19 19 1 1 3.</_></rects>
      <tilted>0</tilted></_>
    <_>
      <rects>
        <_>
          19 0 4 15 -1.</_>
        <_>
          19 5 4 5 3.</_></rects>
      <tilted>0</tilted></_>
    <_>
      <rects>
        <_>
          19 9 2 6 -1.</_>
        <_>
          19 9 1 3 2.</_>
        <_>
          20 12 1 3 2.</_></rects>
      <tilted>0</tilted></_>
    <_>
      <rects>
        <_>
          19 15 3 9 -1.</_>
        <_>
          20 15 1 9 3.</_></rects>
      <tilted>0</tilted></_>
    <_>
      <rects>
        <_>
          20 2 4 18 -1.</_>
        <_>
          22 2 2 18 2.</_></rects>
      <tilted>0</tilted></_>
    <_>
      <rects>
        <_>
          20 10 3 14 -1.</_>
        <_>
          21 10 1 14 3.</_></rects>
      <tilted>0</tilted></_>
    <_>
      <rects>
        <_>
          20 11 4 12 -1.</_>
        <_>
          22 11 2 12 2.</_></rects>
      <tilted>0</tilted></_>
    <_>
      <rects>
        <_>
          21 0 3 11 -1.</_>
        <_>
          22 0 1 11 3.</_></rects>
      <tilted>0</tilted></_>
    <_>
      <rects>
        <_>
          21 7 3 2 -1.</_>
        <_>
          22 7 1 2 3.</_></rects>
      <tilted>0</tilted></_>
    <_>
      <rects>
        <_>
          21 8 3 6 -1.</_>
        <_>
          22 8 1 6 3.</_></rects>
      <tilted>0</tilted></_>
    <_>
      <rects>
        <_>
          21 9 3 6 -1.</_>
        <_>
          22 9 1 6 3.</_></rects>
      <tilted>0</tilted></_>
    <_>
      <rects>
        <_>
          22 0 2 13 -1.</_>
        <_>
          23 0 1 13 2.</_></rects>
      <tilted>0</tilted></_>
    <_>
      <rects>
        <_>
          22 5 2 15 -1.</_>
        <_>
          23 5 1 15 2.</_></rects>
      <tilted>0</tilted></_>
    <_>
      <rects>
        <_>
          22 7 2 9 -1.</_>
        <_>
          23 7 1 9 2.</_></rects>
      <tilted>0</tilted></_>
    <_>
      <rects>
        <_>
          22 7 2 15 -1.</_>
        <_>
          23 7 1 15 2.</_></rects>
      <tilted>0</tilted></_>
    <_>
      <rects>
        <_>
          22 8 2 1 -1.</_>
        <_>
          23 8 1 1 2.</_></rects>
      <tilted>0</tilted></_>
    <_>
      <rects>
        <_>
          22 9 2 5 -1.</_>
        <_>
          23 9 1 5 2.</_></rects>
      <tilted>0</tilted></_>
    <_>
      <rects>
        <_>
          22 15 2 9 -1.</_>
        <_>
          22 18 2 3 3.</_></rects>
      <tilted>0</tilted></_></features></cascade>
</opencv_storage>
